{"inputLookup": true, "layers": [{"0": {}, "1": {}, "10": {}, "11": {}, "12": {}, "13": {}, "14": {}, "15": {}, "16": {}, "17": {}, "18": {}, "19": {}, "2": {}, "20": {}, "21": {}, "22": {}, "23": {}, "24": {}, "25": {}, "26": {}, "3": {}, "4": {}, "5": {}, "6": {}, "7": {}, "8": {}, "9": {}}, {"0": {"bias": 1.7304520472956733, "weights": {"0": 0.4852661961676933, "1": 0.8691895147075166, "10": 0.21927153687572315, "11": -0.03279471027006604, "12": -0.1377417677862522, "13": 0.0988592473084313, "14": -3.3461801888465783, "15": 2.5985636943893393, "16": 0.23961288781488202, "17": 0.19549560072944192, "18": 0.4280299556909583, "19": -0.05456987963993701, "2": -3.636933418277431, "20": -0.18497366733855786, "21": 0.013046517902423449, "22": 1.5288504494934172, "23": 0.9502365520048522, "24": -11.503758082331922, "25": -0.604663666833855, "26": 1.8783000385954618, "3": 2.1626413231620023, "4": 0.5136061493429003, "5": 0.26365073766699204, "6": 1.591921401927347, "7": 7.799237271647061, "8": -1.5147235697747155, "9": 1.749344395293244}}, "1": {"bias": -2.334774523602547, "weights": {"0": -0.5669157580037555, "1": -1.4750377825292806, "10": 3.5034989219218446, "11": 1.7619119591382113, "12": 3.772040245875526, "13": 1.655854973082314, "14": -1.4000281571337214, "15": -1.4366665026283185, "16": -0.30626219508965036, "17": -0.26206935028918954, "18": -0.09259030767581446, "19": -0.2618790354236264, "2": -1.6507891885442145, "20": 0.11446047634341466, "21": 0.08336469937300156, "22": -2.2727098476731373, "23": -1.1566652715126582, "24": 2.3258045644278726, "25": -6.9981920916285265, "26": -81.52856278592631, "3": -1.1367126082158134, "4": 2.1992144221564116, "5": 1.1571592930979029, "6": 2.967977720026942, "7": -9.416984690722469, "8": -1.285957405459683, "9": -1.0463971765011926}}, "10": {"bias": -7.329024825587607, "weights": {"0": -2.1814738423783773, "1": -4.899714589027096, "10": 22.21227426764313, "11": 5.6955883502297935, "12": 18.97578016194168, "13": 2.5208957492448487, "14": -4.453891003178531, "15": -4.512732316336579, "16": -1.5039778534664856, "17": -0.10572635618572948, "18": -3.733884371877827, "19": -0.323135858451711, "2": -6.5663912830815745, "20": -0.13596754342440437, "21": 0.15520138801698974, "22": -7.798267977342736, "23": -3.8775811161594467, "24": 11.752880245413822, "25": 0.7706907180236273, "26": -0.6154887163135141, "3": -3.6404628651240882, "4": 8.77413206877391, "5": 0.41363528551640577, "6": 3.2887710625012443, "7": -37.15599486323584, "8": -3.715746177462003, "9": -3.528184420731985}}, "11": {"bias": -11.386663338903313, "weights": {"0": -2.783190158184093, "1": -7.825542346226202, "10": 15.293184926831476, "11": 5.836778105702083, "12": 17.329911447578706, "13": 9.612613197043633, "14": -20.45036289700362, "15": -5.149008011898026, "16": -2.7536513278916406, "17": -0.4604444022379582, "18": -0.041332924266557686, "19": 2.5655285523574887, "2": -32.003031113388786, "20": -0.19490487038291474, "21": 0.16866838225823394, "22": -12.521685077059992, "23": -6.334408784398757, "24": 12.700578484359122, "25": 61.51643260157385, "26": 21.596803515906963, "3": -2.926376649936044, "4": 10.556604801835816, "5": 5.466464796745008, "6": 17.95241803652646, "7": -55.2645841282865, "8": -16.36674392441296, "9": -3.18071085894308}}, "12": {"bias": -2.353519684076418, "weights": {"0": -5.831544385590783, "1": -1.1081374870618148, "10": 6.707884676768996, "11": 2.430102917415235, "12": 7.34314318744443, "13": 3.786735546587426, "14": -31.173409578154356, "15": -0.10301397469852992, "16": -0.4562501959000665, "17": -0.04018508392921781, "18": 0.7850872284286803, "19": 1.1381887497769672, "2": -31.58963835933023, "20": -0.025275529614228548, "21": 0.03211069600761443, "22": -2.607992350049945, "23": -1.212281288181341, "24": -29.289657625469793, "25": 40.88718081576644, "26": 50.89741748537122, "3": -4.641168645116471, "4": 4.662224440362733, "5": 2.3269593778473623, "6": 11.563173206043283, "7": 14.966561737515663, "8": -17.819965391285606, "9": 0.4429108970708076}}, "2": {"bias": 16.575909018189776, "weights": {"0": 4.920232206046442, "1": 11.094316246463332, "10": -31.76396948878104, "11": -0.6529941428410851, "12": -27.562284956006074, "13": -21.98775952348134, "14": 6.683295538017818, "15": 10.761758860784385, "16": 3.883952921234532, "17": 0.642462260415459, "18": -14.815800727425904, "19": -12.373215572737527, "2": 4.989152033939392, "20": 0.08052842015975975, "21": 0.11623069746226838, "22": 18.42229000074985, "23": 9.32618315777919, "24": -10.689796991193978, "25": -35.33014066093223, "26": -15.089387399816887, "3": 12.558761367863484, "4": -25.483011724281116, "5": -17.701891768309633, "6": -30.29867015858111, "7": -24.679790742997533, "8": 6.666230599891454, "9": 8.074646300041396}}, "3": {"bias": 2.16746995549018, "weights": {"0": 0.6447940938559259, "1": 1.592691457435149, "10": -0.8430891851595986, "11": -2.41298177970406, "12": -4.214787876770681, "13": -6.887649357050685, "14": -0.23360066572901222, "15": 1.4621117706225124, "16": 0.425292161996008, "17": 0.16785982395652735, "18": -2.0605184465463378, "19": -1.5324009006868144, "2": -7.834666195748527, "20": 0.004611809762728569, "21": 0.06792902551459079, "22": 2.5770401238820253, "23": 1.2222241119455457, "24": 5.750453668948114, "25": 43.45499583266105, "26": -21.080653299449114, "3": 8.916464666896216, "4": -5.88082494443482, "5": -5.23483274675124, "6": -19.314621756529384, "7": -31.841529682264795, "8": 0.7581203934895646, "9": 0.9328589187123323}}, "4": {"bias": -0.3159548425493096, "weights": {"0": -0.2026597100035872, "1": -0.2811198931458995, "10": -1.7006239629411453, "11": -0.4779609982841573, "12": -1.8677284487438617, "13": -1.210685419847527, "14": -0.6994408212998552, "15": -0.24909842412318256, "16": -0.21038367185729567, "17": -0.06199078142522332, "18": -1.0255077388830083, "19": -0.6534168763040493, "2": -0.7838275227656732, "20": 0.0800237613760088, "21": 0.07899396984823526, "22": -0.40551439672224987, "23": -0.3121113307746193, "24": -2.1747407677079957, "25": -1.163208973694326, "26": -3.841608180995922, "3": -0.3660438717196511, "4": -1.562586995896145, "5": -0.9279861424097721, "6": -2.000687622841873, "7": -1.9047949449050636, "8": -0.44838521046743224, "9": -0.03891306723539312}}, "5": {"bias": -6.949392922619302, "weights": {"0": -2.1841760109210293, "1": -4.82228087568801, "10": 10.89254557021292, "11": -0.1840605179585777, "12": 9.6316039820357, "13": 7.813472561094725, "14": -5.002673738991626, "15": -3.996637122173729, "16": -1.4773279488608853, "17": -0.16230913728303825, "18": 6.165056142381817, "19": 5.511319367130202, "2": -6.374652566073622, "20": 0.06617496940576129, "21": 0.13473682817241345, "22": -7.6331795861900815, "23": -3.9305445493218647, "24": 3.114607503735221, "25": 8.238534992278314, "26": -27.904454969529457, "3": -3.597635108190749, "4": 9.077413404545863, "5": 6.353726509723349, "6": 10.776991061426706, "7": 8.122978629692623, "8": -4.036722872655583, "9": -3.050657318629396}}, "6": {"bias": 16.028184475521034, "weights": {"0": 4.505310346996321, "1": 10.915841644801086, "10": -27.032307600139866, "11": -0.1281214172225219, "12": -23.794271125697144, "13": -18.9312141926895, "14": 8.28122019281652, "15": 9.583556831577303, "16": 3.747782700803, "17": 0.5577364399987019, "18": -16.396794512489908, "19": -12.816980739312674, "2": 10.926650497244074, "20": -0.12108121531592975, "21": 0.030262614685422656, "22": 17.576827413239567, "23": 8.95551899268535, "24": -35.09825201592392, "25": -38.675356798544854, "26": -22.82735522808253, "3": 7.884202029261398, "4": -22.086221148886874, "5": -15.466784051142394, "6": -25.46921450776516, "7": -20.188678530062383, "8": 7.398407555315701, "9": 7.470394097772176}}, "7": {"bias": 0.4947048919940938, "weights": {"0": 0.2112187876120383, "1": 0.28917805301495564, "10": -0.5702853825871393, "11": -0.11205396023306069, "12": -0.22651752444531745, "13": -0.34558578043223726, "14": -0.4553761663044234, "15": 0.514490092744767, "16": -0.0788524633516625, "17": 0.2159761818407763, "18": -0.32605987634235606, "19": -0.21227554616865663, "2": 1.1054702393374172, "20": -0.13417909983184861, "21": -0.17002886487200178, "22": 0.5877859649418622, "23": 0.3262511120826931, "24": -2.737364021727532, "25": -5.139064999185079, "26": -0.45970554509423794, "3": -0.9674453375145929, "4": -0.08522554049975412, "5": 0.09947043472717726, "6": 0.0894700607042574, "7": 0.8408685454566089, "8": -0.1893961125742936, "9": 0.4799670376466985}}, "8": {"bias": 3.259815865883415, "weights": {"0": 0.9763576008190146, "1": 2.3319282553358613, "10": -4.01365445485649, "11": -3.1702567179078756, "12": -5.177668212284483, "13": -2.7314948381754682, "14": 1.1055772792495455, "15": 1.9167749329585784, "16": 0.5940104165314067, "17": 0.07474355632251557, "18": -0.1937720276249084, "19": -1.2778859184947584, "2": 1.7959662259975593, "20": -0.041048718996023414, "21": 0.023062594400858838, "22": 3.5074950278640045, "23": 1.7909047380907037, "24": -10.688311148612087, "25": -7.160738453373623, "26": -5.998003625107648, "3": 1.4202807821152899, "4": -2.6186774695733854, "5": -1.4003772119351185, "6": -5.171553198858779, "7": -2.9239195449536166, "8": 1.337334214100513, "9": 1.3528741276207887}}, "9": {"bias": -1.5091331727516193, "weights": {"0": -0.6063651783182964, "1": -1.1745575260632988, "10": 2.824589208188419, "11": 0.7570166207067166, "12": 2.4576653354240445, "13": 0.16444880061978143, "14": -1.0191660872347128, "15": -1.0140282614132714, "16": -0.4312405120488409, "17": 0.10361613533176701, "18": -0.6789752937849394, "19": 0.06661996076395062, "2": -1.8983988669113472, "20": -0.1450443797638557, "21": -0.016035421195303268, "22": -1.8141604322709302, "23": -0.7680402576063993, "24": 0.8906366847517347, "25": 0.9706501182166224, "26": -4.931830568436991, "3": -0.6687732884234084, "4": 0.7242664906646712, "5": -0.40886421000612994, "6": -0.8836155042533723, "7": -5.988699283677064, "8": -1.0998654748966308, "9": -0.840949029080763}}}, {"0": {"bias": 0.47977848040047893, "weights": {"0": 0.9763657136762753, "1": -14.114297320213804, "10": -4.07339061768193, "11": -7.88792776081043, "12": -19.71667177654199, "2": -5.346735967648417, "3": -4.903999044986598, "4": -1.5474472093752059, "5": 15.178586809074044, "6": -2.4683135578685826, "7": 0.8149121438519693, "8": -5.58080088750981, "9": -0.5336512731489215}}, "1": {"bias": -1.0134163033794428, "weights": {"0": -8.361502223908966, "1": 20.880266268761726, "10": -4.210868667765088, "11": -0.09053347193896488, "12": -3.4959208752891118, "2": 4.262399987389052, "3": -0.2518412095173791, "4": 2.6787608661508173, "5": -20.887158871170467, "6": 1.6423513574813418, "7": -2.824802954945309, "8": -8.843429294418552, "9": -0.8694014601852591}}, "2": {"bias": -6.886346096314617, "weights": {"0": -0.26761404937889277, "1": 15.539358373606683, "10": 5.772522946907215, "11": 6.422462639183, "12": -23.50130081931635, "2": 10.829260375903935, "3": 6.4258711132634385, "4": 0.023113460026697653, "5": -15.457220357204077, "6": -28.17495709748988, "7": -0.37703296744751896, "8": -1.5907178181151698, "9": 1.7379258653150054}}}], "outputLookup": true}